<?xml version="1.0"?>
<opencv_storage>
<stage8>
  <maxWeakCount>23</maxWeakCount>
  <stageThreshold>-1.1791480779647827e+00</stageThreshold>
  <weakClassifiers>
    <_>
      <internalNodes>
        0 -1 78381 -7.2813898324966431e-02</internalNodes>
      <leafValues>
        2.6160338521003723e-01 -4.4356954097747803e-01</leafValues></_>
    <_>
      <internalNodes>
        0 -1 1230 -4.9866028130054474e-03</internalNodes>
      <leafValues>
        3.5399079322814941e-01 -2.1018539369106293e-01</leafValues></_>
    <_>
      <internalNodes>
        0 -1 162331 3.2967433799058199e-04</internalNodes>
      <leafValues>
        1.1781562119722366e-01 -6.4795780181884766e-01</leafValues></_>
    <_>
      <internalNodes>
        0 -1 120386 -5.8940304443240166e-03</internalNodes>
      <leafValues>
        3.9728623628616333e-01 -1.5878312289714813e-01</leafValues></_>
    <_>
      <internalNodes>
        0 -1 162289 7.3387922020629048e-04</internalNodes>
      <leafValues>
        5.3128369152545929e-02 -7.0698732137680054e-01</leafValues></_>
    <_>
      <internalNodes>
        0 -1 17815 1.3224066793918610e-01</internalNodes>
      <leafValues>
        1.5988665819168091e-01 -5.0245219469070435e-01</leafValues></_>
    <_>
      <internalNodes>
        0 -1 132434 2.1157595328986645e-03</internalNodes>
      <leafValues>
        -3.2088339328765869e-01 1.8683433532714844e-01</leafValues></_>
    <_>
      <internalNodes>
        0 -1 162096 9.8880220321007073e-05</internalNodes>
      <leafValues>
        1.4188098907470703e-01 -5.4361748695373535e-01</leafValues></_>
    <_>
      <internalNodes>
        0 -1 27967 1.4678818406537175e-03</internalNodes>
      <leafValues>
        -2.1045266091823578e-01 3.5397025942802429e-01</leafValues></_>
    <_>
      <internalNodes>
        0 -1 2429 -2.2801919840276241e-03</internalNodes>
      <leafValues>
        3.2586500048637390e-01 -2.2122886776924133e-01</leafValues></_>
    <_>
      <internalNodes>
        0 -1 120363 9.2904374469071627e-04</internalNodes>
      <leafValues>
        -1.3181780278682709e-01 4.1250962018966675e-01</leafValues></_>
    <_>
      <internalNodes>
        0 -1 152138 1.0741127282381058e-01</internalNodes>
      <leafValues>
        6.8308986723423004e-02 -8.5150039196014404e-01</leafValues></_>
    <_>
      <internalNodes>
        0 -1 161239 3.2902541570365429e-03</internalNodes>
      <leafValues>
        -1.7759396135807037e-01 3.7855339050292969e-01</leafValues></_>
    <_>
      <internalNodes>
        0 -1 107254 1.9760774075984955e-01</internalNodes>
      <leafValues>
        -1.1031483858823776e-01 6.9259345531463623e-01</leafValues></_>
    <_>
      <internalNodes>
        0 -1 49294 2.5500683113932610e-04</internalNodes>
      <leafValues>
        1.4695236086845398e-01 -4.6981343626976013e-01</leafValues></_>
    <_>
      <internalNodes>
        0 -1 12773 1.2715660035610199e-02</internalNodes>
      <leafValues>
        -2.6691710948944092e-01 2.1957339346408844e-01</leafValues></_>
    <_>
      <internalNodes>
        0 -1 115860 -8.0868136137723923e-04</internalNodes>
      <leafValues>
        3.2293587923049927e-01 -1.8160708248615265e-01</leafValues></_>
    <_>
      <internalNodes>
        0 -1 11035 -1.4017961802892387e-04</internalNodes>
      <leafValues>
        -3.8106650114059448e-01 1.4884167909622192e-01</leafValues></_>
    <_>
      <internalNodes>
        0 -1 1237 9.2807337641716003e-03</internalNodes>
      <leafValues>
        -1.7987644672393799e-01 3.6286112666130066e-01</leafValues></_>
    <_>
      <internalNodes>
        0 -1 11035 5.9861835325136781e-04</internalNodes>
      <leafValues>
        9.9747098982334137e-02 -6.1998969316482544e-01</leafValues></_>
    <_>
      <internalNodes>
        0 -1 147241 1.8222953658550978e-03</internalNodes>
      <leafValues>
        -1.6502121090888977e-01 3.6008235812187195e-01</leafValues></_>
    <_>
      <internalNodes>
        0 -1 146438 -6.3001159578561783e-03</internalNodes>
      <leafValues>
        5.0343364477157593e-01 -1.3112105429172516e-01</leafValues></_>
    <_>
      <internalNodes>
        0 -1 162335 2.5728717446327209e-04</internalNodes>
      <leafValues>
        9.7419805824756622e-02 -6.3660633563995361e-01</leafValues></_></weakClassifiers></stage8>
</opencv_storage>
