<?xml version="1.0"?>
<opencv_storage>
<stage14>
  <maxWeakCount>28</maxWeakCount>
  <stageThreshold>-1.0652222633361816e+00</stageThreshold>
  <weakClassifiers>
    <_>
      <internalNodes>
        0 -1 110917 1.6657391190528870e-01</internalNodes>
      <leafValues>
        -2.6416906714439392e-01 2.7653214335441589e-01</leafValues></_>
    <_>
      <internalNodes>
        0 -1 120390 2.0609456114470959e-03</internalNodes>
      <leafValues>
        -1.3483674824237823e-01 4.1110292077064514e-01</leafValues></_>
    <_>
      <internalNodes>
        0 -1 90403 2.0448972284793854e-01</internalNodes>
      <leafValues>
        -1.4820072054862976e-01 4.6088767051696777e-01</leafValues></_>
    <_>
      <internalNodes>
        0 -1 92591 -5.9650409966707230e-03</internalNodes>
      <leafValues>
        3.5720473527908325e-01 -1.8335330486297607e-01</leafValues></_>
    <_>
      <internalNodes>
        0 -1 127499 1.2416723184287548e-02</internalNodes>
      <leafValues>
        -1.3934724032878876e-01 3.4169730544090271e-01</leafValues></_>
    <_>
      <internalNodes>
        0 -1 49478 -1.9815715495496988e-04</internalNodes>
      <leafValues>
        -4.3623781204223633e-01 1.2890742719173431e-01</leafValues></_>
    <_>
      <internalNodes>
        0 -1 149467 4.1724201291799545e-03</internalNodes>
      <leafValues>
        -1.5945738554000854e-01 3.2662305235862732e-01</leafValues></_>
    <_>
      <internalNodes>
        0 -1 149762 2.6244309265166521e-04</internalNodes>
      <leafValues>
        -1.6908484697341919e-01 2.9768115282058716e-01</leafValues></_>
    <_>
      <internalNodes>
        0 -1 49460 -2.5288097094744444e-04</internalNodes>
      <leafValues>
        -4.9039673805236816e-01 1.2008520215749741e-01</leafValues></_>
    <_>
      <internalNodes>
        0 -1 139028 1.7720293253660202e-03</internalNodes>
      <leafValues>
        -2.3578722774982452e-01 2.3138797283172607e-01</leafValues></_>
    <_>
      <internalNodes>
        0 -1 137620 7.6465163147076964e-04</internalNodes>
      <leafValues>
        -1.2007886171340942e-01 3.6281803250312805e-01</leafValues></_>
    <_>
      <internalNodes>
        0 -1 136491 -8.6880201706662774e-04</internalNodes>
      <leafValues>
        3.7358590960502625e-01 -1.3369739055633545e-01</leafValues></_>
    <_>
      <internalNodes>
        0 -1 152159 1.1634266376495361e-01</internalNodes>
      <leafValues>
        7.5621791183948517e-02 -6.2357544898986816e-01</leafValues></_>
    <_>
      <internalNodes>
        0 -1 161145 -1.6290450002998114e-04</internalNodes>
      <leafValues>
        -4.7711431980133057e-01 1.0533513873815536e-01</leafValues></_>
    <_>
      <internalNodes>
        0 -1 69839 -4.8369467258453369e-03</internalNodes>
      <leafValues>
        6.1931020021438599e-01 -8.0892868340015411e-02</leafValues></_>
    <_>
      <internalNodes>
        0 -1 1147 -5.7482565753161907e-03</internalNodes>
      <leafValues>
        5.0177830457687378e-01 -9.9366769194602966e-02</leafValues></_>
    <_>
      <internalNodes>
        0 -1 68934 1.4722004532814026e-02</internalNodes>
      <leafValues>
        -7.7135756611824036e-02 6.4662200212478638e-01</leafValues></_>
    <_>
      <internalNodes>
        0 -1 120597 9.7167640924453735e-03</internalNodes>
      <leafValues>
        -1.0948970913887024e-01 4.7292175889015198e-01</leafValues></_>
    <_>
      <internalNodes>
        0 -1 1162 5.2727246657013893e-04</internalNodes>
      <leafValues>
        -1.9064113497734070e-01 2.5154361128807068e-01</leafValues></_>
    <_>
      <internalNodes>
        0 -1 65616 4.9536162987351418e-03</internalNodes>
      <leafValues>
        -1.0169978439807892e-01 4.2558020353317261e-01</leafValues></_>
    <_>
      <internalNodes>
        0 -1 12870 1.7185886099468917e-04</internalNodes>
      <leafValues>
        -2.0880761742591858e-01 2.3769208788871765e-01</leafValues></_>
    <_>
      <internalNodes>
        0 -1 12852 -7.6243304647505283e-04</internalNodes>
      <leafValues>
        -5.6105679273605347e-01 1.0542397201061249e-01</leafValues></_>
    <_>
      <internalNodes>
        0 -1 3145 9.9567892029881477e-03</internalNodes>
      <leafValues>
        4.9152642488479614e-02 -7.2216206789016724e-01</leafValues></_>
    <_>
      <internalNodes>
        0 -1 161240 1.3047279207967222e-04</internalNodes>
      <leafValues>
        1.2659101188182831e-01 -3.2764536142349243e-01</leafValues></_>
    <_>
      <internalNodes>
        0 -1 158294 -5.2963178604841232e-03</internalNodes>
      <leafValues>
        4.5046561956405640e-01 -1.1190085113048553e-01</leafValues></_>
    <_>
      <internalNodes>
        0 -1 158696 1.0650174226611853e-03</internalNodes>
      <leafValues>
        -1.7979633808135986e-01 3.1806647777557373e-01</leafValues></_>
    <_>
      <internalNodes>
        0 -1 138643 4.6815732493996620e-03</internalNodes>
      <leafValues>
        -1.2585532665252686e-01 3.8146507740020752e-01</leafValues></_>
    <_>
      <internalNodes>
        0 -1 10563 -4.4579087989404798e-04</internalNodes>
      <leafValues>
        -5.1024436950683594e-01 9.2335395514965057e-02</leafValues></_></weakClassifiers></stage14>
</opencv_storage>
