<?xml version="1.0"?>
<opencv_storage>
<stage15>
  <maxWeakCount>28</maxWeakCount>
  <stageThreshold>-1.0318040847778320e+00</stageThreshold>
  <weakClassifiers>
    <_>
      <internalNodes>
        0 -1 105145 -2.7616124600172043e-02</internalNodes>
      <leafValues>
        2.1751412749290466e-01 -2.4351297318935394e-01</leafValues></_>
    <_>
      <internalNodes>
        0 -1 162312 -8.7907130364328623e-05</internalNodes>
      <leafValues>
        -4.0486493706703186e-01 1.1896326392889023e-01</leafValues></_>
    <_>
      <internalNodes>
        0 -1 123589 3.4581129439175129e-03</internalNodes>
      <leafValues>
        -1.8253584206104279e-01 2.8837034106254578e-01</leafValues></_>
    <_>
      <internalNodes>
        0 -1 124034 -1.9391229376196861e-02</internalNodes>
      <leafValues>
        5.2833241224288940e-01 -9.9892325699329376e-02</leafValues></_>
    <_>
      <internalNodes>
        0 -1 21539 -4.6402253210544586e-02</internalNodes>
      <leafValues>
        2.5790601968765259e-01 -2.1637703478336334e-01</leafValues></_>
    <_>
      <internalNodes>
        0 -1 161444 8.7073147296905518e-03</internalNodes>
      <leafValues>
        -1.3310076296329498e-01 4.8542857170104980e-01</leafValues></_>
    <_>
      <internalNodes>
        0 -1 121335 -2.0229374058544636e-04</internalNodes>
      <leafValues>
        -3.7206435203552246e-01 1.7704275250434875e-01</leafValues></_>
    <_>
      <internalNodes>
        0 -1 161164 -2.3938191588968039e-04</internalNodes>
      <leafValues>
        -5.2713817358016968e-01 6.4205504953861237e-02</leafValues></_>
    <_>
      <internalNodes>
        0 -1 132171 8.1074796617031097e-03</internalNodes>
      <leafValues>
        -2.3331916332244873e-01 2.1920706331729889e-01</leafValues></_>
    <_>
      <internalNodes>
        0 -1 141151 1.3793252874165773e-03</internalNodes>
      <leafValues>
        -1.5336403250694275e-01 3.4473019838333130e-01</leafValues></_>
    <_>
      <internalNodes>
        0 -1 140840 -1.7051391769200563e-03</internalNodes>
      <leafValues>
        3.0966863036155701e-01 -2.0655173063278198e-01</leafValues></_>
    <_>
      <internalNodes>
        0 -1 24755 8.1297755241394043e-04</internalNodes>
      <leafValues>
        -1.1816356331110001e-01 3.5823673009872437e-01</leafValues></_>
    <_>
      <internalNodes>
        0 -1 24755 -1.3022216735407710e-03</internalNodes>
      <leafValues>
        3.6746892333030701e-01 -1.6778464615345001e-01</leafValues></_>
    <_>
      <internalNodes>
        0 -1 12551 -4.0168315172195435e-04</internalNodes>
      <leafValues>
        -5.8708214759826660e-01 1.0327039659023285e-01</leafValues></_>
    <_>
      <internalNodes>
        0 -1 70015 1.7894074553623796e-03</internalNodes>
      <leafValues>
        -1.5415561199188232e-01 2.9967644810676575e-01</leafValues></_>
    <_>
      <internalNodes>
        0 -1 66195 2.7986224740743637e-03</internalNodes>
      <leafValues>
        -1.8848390877246857e-01 2.3189987242221832e-01</leafValues></_>
    <_>
      <internalNodes>
        0 -1 139559 2.6833098381757736e-02</internalNodes>
      <leafValues>
        -1.5177091956138611e-01 2.9854691028594971e-01</leafValues></_>
    <_>
      <internalNodes>
        0 -1 7934 1.1559586226940155e-01</internalNodes>
      <leafValues>
        1.0216647386550903e-01 -5.2296185493469238e-01</leafValues></_>
    <_>
      <internalNodes>
        0 -1 39970 5.7984129525721073e-03</internalNodes>
      <leafValues>
        -1.6648791730403900e-01 2.8815251588821411e-01</leafValues></_>
    <_>
      <internalNodes>
        0 -1 155312 -1.0862156050279737e-03</internalNodes>
      <leafValues>
        -5.3810292482376099e-01 9.0601235628128052e-02</leafValues></_>
    <_>
      <internalNodes>
        0 -1 52390 4.9382187426090240e-03</internalNodes>
      <leafValues>
        -1.8042281270027161e-01 2.8314417600631714e-01</leafValues></_>
    <_>
      <internalNodes>
        0 -1 82134 -7.3523938655853271e-02</internalNodes>
      <leafValues>
        6.0499590635299683e-01 -7.4172094464302063e-02</leafValues></_>
    <_>
      <internalNodes>
        0 -1 133605 2.3483084514737129e-03</internalNodes>
      <leafValues>
        -1.2855528295040131e-01 3.6556631326675415e-01</leafValues></_>
    <_>
      <internalNodes>
        0 -1 162063 -1.0996314813382924e-04</internalNodes>
      <leafValues>
        -4.3496891856193542e-01 1.1000181734561920e-01</leafValues></_>
    <_>
      <internalNodes>
        0 -1 69326 -2.9599904082715511e-03</internalNodes>
      <leafValues>
        1.5693145990371704e-01 -3.1037321686744690e-01</leafValues></_>
    <_>
      <internalNodes>
        0 -1 88446 3.6317978519946337e-03</internalNodes>
      <leafValues>
        -1.8913529813289642e-01 2.7400311827659607e-01</leafValues></_>
    <_>
      <internalNodes>
        0 -1 80631 9.8870415240526199e-04</internalNodes>
      <leafValues>
        -1.6179981827735901e-01 3.2379347085952759e-01</leafValues></_>
    <_>
      <internalNodes>
        0 -1 116590 -1.1189926415681839e-02</internalNodes>
      <leafValues>
        3.7966710329055786e-01 -1.4700908958911896e-01</leafValues></_></weakClassifiers></stage15>
</opencv_storage>
