<?xml version="1.0"?>
<opencv_storage>
<stage13>
  <maxWeakCount>27</maxWeakCount>
  <stageThreshold>-1.0207109451293945e+00</stageThreshold>
  <weakClassifiers>
    <_>
      <internalNodes>
        0 -1 43400 -2.7315312623977661e-01</internalNodes>
      <leafValues>
        2.3032070696353912e-01 -2.4218750000000000e-01</leafValues></_>
    <_>
      <internalNodes>
        0 -1 13353 1.2417394827934913e-05</internalNodes>
      <leafValues>
        -2.2011172771453857e-01 2.2450092434883118e-01</leafValues></_>
    <_>
      <internalNodes>
        0 -1 25445 -2.6037945644930005e-04</internalNodes>
      <leafValues>
        -5.5762588977813721e-01 8.0910816788673401e-02</leafValues></_>
    <_>
      <internalNodes>
        0 -1 44080 -5.7761633396148682e-01</internalNodes>
      <leafValues>
        -9.0906900167465210e-01 9.7135245800018311e-02</leafValues></_>
    <_>
      <internalNodes>
        0 -1 67760 3.4174412488937378e-02</internalNodes>
      <leafValues>
        -1.6506546735763550e-01 3.8220646977424622e-01</leafValues></_>
    <_>
      <internalNodes>
        0 -1 37230 3.8416602183133364e-03</internalNodes>
      <leafValues>
        -2.0641717314720154e-01 3.4185948967933655e-01</leafValues></_>
    <_>
      <internalNodes>
        0 -1 37468 -1.6934936866164207e-03</internalNodes>
      <leafValues>
        4.2556577920913696e-01 -1.2035240978002548e-01</leafValues></_>
    <_>
      <internalNodes>
        0 -1 12257 -1.4125775487627834e-04</internalNodes>
      <leafValues>
        -3.7019675970077515e-01 1.5627413988113403e-01</leafValues></_>
    <_>
      <internalNodes>
        0 -1 111306 -3.9922349154949188e-02</internalNodes>
      <leafValues>
        4.5017290115356445e-01 -1.1951910704374313e-01</leafValues></_>
    <_>
      <internalNodes>
        0 -1 122655 -3.6775849759578705e-02</internalNodes>
      <leafValues>
        2.8944438695907593e-01 -2.3309677839279175e-01</leafValues></_>
    <_>
      <internalNodes>
        0 -1 25047 5.7818240020424128e-04</internalNodes>
      <leafValues>
        -2.5179347395896912e-01 2.1239382028579712e-01</leafValues></_>
    <_>
      <internalNodes>
        0 -1 161241 -2.7845002477988601e-04</internalNodes>
      <leafValues>
        -3.8941371440887451e-01 1.1457269638776779e-01</leafValues></_>
    <_>
      <internalNodes>
        0 -1 431 -9.6965283155441284e-02</internalNodes>
      <leafValues>
        -7.2321796417236328e-01 8.2386299967765808e-02</leafValues></_>
    <_>
      <internalNodes>
        0 -1 28797 1.0104988468810916e-03</internalNodes>
      <leafValues>
        -1.9458599388599396e-01 2.6839065551757812e-01</leafValues></_>
    <_>
      <internalNodes>
        0 -1 80361 3.8316226564347744e-03</internalNodes>
      <leafValues>
        -1.6121506690979004e-01 3.4139826893806458e-01</leafValues></_>
    <_>
      <internalNodes>
        0 -1 37198 -1.4191595255397260e-04</internalNodes>
      <leafValues>
        -4.1187882423400879e-01 1.3024489581584930e-01</leafValues></_>
    <_>
      <internalNodes>
        0 -1 113780 1.6479098703712225e-03</internalNodes>
      <leafValues>
        -1.2828952074050903e-01 4.1458159685134888e-01</leafValues></_>
    <_>
      <internalNodes>
        0 -1 73154 8.0049631651490927e-04</internalNodes>
      <leafValues>
        -2.0757290720939636e-01 2.3245117068290710e-01</leafValues></_>
    <_>
      <internalNodes>
        0 -1 842 -1.0762318968772888e-01</internalNodes>
      <leafValues>
        -4.6795502305030823e-01 9.5039732754230499e-02</leafValues></_>
    <_>
      <internalNodes>
        0 -1 3268 -8.6613008752465248e-03</internalNodes>
      <leafValues>
        2.8745508193969727e-01 -1.5909141302108765e-01</leafValues></_>
    <_>
      <internalNodes>
        0 -1 15412 6.0033020563423634e-03</internalNodes>
      <leafValues>
        -8.3942949771881104e-02 4.9999225139617920e-01</leafValues></_>
    <_>
      <internalNodes>
        0 -1 161992 -3.9720439235679805e-04</internalNodes>
      <leafValues>
        -4.4597065448760986e-01 1.0653313249349594e-01</leafValues></_>
    <_>
      <internalNodes>
        0 -1 161058 4.6115907025523484e-04</internalNodes>
      <leafValues>
        -2.0185883343219757e-01 2.6620772480964661e-01</leafValues></_>
    <_>
      <internalNodes>
        0 -1 89826 -4.3375504901632667e-04</internalNodes>
      <leafValues>
        -5.1762580871582031e-01 8.4012039005756378e-02</leafValues></_>
    <_>
      <internalNodes>
        0 -1 75224 9.3785040080547333e-03</internalNodes>
      <leafValues>
        -1.1201317608356476e-01 4.4896286725997925e-01</leafValues></_>
    <_>
      <internalNodes>
        0 -1 70671 -2.5106504559516907e-02</internalNodes>
      <leafValues>
        -7.5521254539489746e-01 7.8866407275199890e-02</leafValues></_>
    <_>
      <internalNodes>
        0 -1 89562 9.3736802227795124e-04</internalNodes>
      <leafValues>
        -1.2649066746234894e-01 4.8639917373657227e-01</leafValues></_></weakClassifiers></stage13>
</opencv_storage>
