<?xml version="1.0"?>
<opencv_storage>
<stage23>
  <maxWeakCount>10</maxWeakCount>
  <stageThreshold>-1.4753561019897461e+00</stageThreshold>
  <weakClassifiers>
    <_>
      <internalNodes>
        0 -1 121232 3.2864790409803391e-03</internalNodes>
      <leafValues>
        -4.0449437499046326e-01 5.2531647682189941e-01</leafValues></_>
    <_>
      <internalNodes>
        0 -1 89915 -1.1388371931388974e-03</internalNodes>
      <leafValues>
        -4.1881352663040161e-01 5.8344584703445435e-01</leafValues></_>
    <_>
      <internalNodes>
        0 -1 100054 -7.0284549146890640e-03</internalNodes>
      <leafValues>
        6.9284182786941528e-01 -3.0954512953758240e-01</leafValues></_>
    <_>
      <internalNodes>
        0 -1 95206 -7.3625086806714535e-03</internalNodes>
      <leafValues>
        9.2842417955398560e-01 -2.0669209957122803e-01</leafValues></_>
    <_>
      <internalNodes>
        0 -1 43170 -8.5345067782327533e-04</internalNodes>
      <leafValues>
        7.9663079977035522e-01 -2.3047067224979401e-01</leafValues></_>
    <_>
      <internalNodes>
        0 -1 160432 3.7926910445094109e-03</internalNodes>
      <leafValues>
        -1.4609231054782867e-01 8.4759604930877686e-01</leafValues></_>
    <_>
      <internalNodes>
        0 -1 119905 2.7630941476672888e-03</internalNodes>
      <leafValues>
        -1.3928562402725220e-01 9.3477183580398560e-01</leafValues></_>
    <_>
      <internalNodes>
        0 -1 13659 1.1616107076406479e-04</internalNodes>
      <leafValues>
        -3.3302399516105652e-01 5.3014057874679565e-01</leafValues></_>
    <_>
      <internalNodes>
        0 -1 135727 -7.7714920043945312e-02</internalNodes>
      <leafValues>
        8.9960473775863647e-01 -1.7849379777908325e-01</leafValues></_>
    <_>
      <internalNodes>
        0 -1 136541 6.7577906884253025e-04</internalNodes>
      <leafValues>
        -2.4356079101562500e-01 8.1039577722549438e-01</leafValues></_></weakClassifiers></stage23>
</opencv_storage>
