<?xml version="1.0"?>
<opencv_storage>
<stage17>
  <maxWeakCount>27</maxWeakCount>
  <stageThreshold>-1.0460958480834961e+00</stageThreshold>
  <weakClassifiers>
    <_>
      <internalNodes>
        0 -1 25286 9.4592815730720758e-04</internalNodes>
      <leafValues>
        -2.2624054551124573e-01 3.4357005357742310e-01</leafValues></_>
    <_>
      <internalNodes>
        0 -1 162099 -1.4769495464861393e-04</internalNodes>
      <leafValues>
        -5.2636682987213135e-01 1.0283305495977402e-01</leafValues></_>
    <_>
      <internalNodes>
        0 -1 47513 1.1121677234768867e-03</internalNodes>
      <leafValues>
        -1.6434656083583832e-01 3.6399742960929871e-01</leafValues></_>
    <_>
      <internalNodes>
        0 -1 114529 2.7041542343795300e-03</internalNodes>
      <leafValues>
        -2.4174857139587402e-01 2.7340167760848999e-01</leafValues></_>
    <_>
      <internalNodes>
        0 -1 150898 6.3161780126392841e-03</internalNodes>
      <leafValues>
        -1.4757911860942841e-01 3.5387280583381653e-01</leafValues></_>
    <_>
      <internalNodes>
        0 -1 81294 1.9487392902374268e-01</internalNodes>
      <leafValues>
        -1.4595751464366913e-01 5.3698092699050903e-01</leafValues></_>
    <_>
      <internalNodes>
        0 -1 7039 -1.5433284640312195e-01</internalNodes>
      <leafValues>
        3.6326321959495544e-01 -2.3678019642829895e-01</leafValues></_>
    <_>
      <internalNodes>
        0 -1 151304 -4.1745644994080067e-03</internalNodes>
      <leafValues>
        4.1948378086090088e-01 -1.6295315325260162e-01</leafValues></_>
    <_>
      <internalNodes>
        0 -1 30585 -1.8737696809694171e-03</internalNodes>
      <leafValues>
        4.2844504117965698e-01 -1.2812694907188416e-01</leafValues></_>
    <_>
      <internalNodes>
        0 -1 43812 1.5672305598855019e-03</internalNodes>
      <leafValues>
        -1.4627800881862640e-01 4.1079890727996826e-01</leafValues></_>
    <_>
      <internalNodes>
        0 -1 52 -1.8526053463574499e-04</internalNodes>
      <leafValues>
        2.1568368375301361e-01 -2.2768700122833252e-01</leafValues></_>
    <_>
      <internalNodes>
        0 -1 162297 2.0454707555472851e-04</internalNodes>
      <leafValues>
        1.4464889466762543e-01 -4.3033099174499512e-01</leafValues></_>
    <_>
      <internalNodes>
        0 -1 155514 -8.9640438091009855e-04</internalNodes>
      <leafValues>
        2.5851947069168091e-01 -2.1962262690067291e-01</leafValues></_>
    <_>
      <internalNodes>
        0 -1 162297 -1.3270534691400826e-04</internalNodes>
      <leafValues>
        -4.3366891145706177e-01 1.1978464573621750e-01</leafValues></_>
    <_>
      <internalNodes>
        0 -1 156478 -3.3441884443163872e-03</internalNodes>
      <leafValues>
        4.1775780916213989e-01 -1.2594544887542725e-01</leafValues></_>
    <_>
      <internalNodes>
        0 -1 146070 -9.1559290885925293e-03</internalNodes>
      <leafValues>
        2.4473720788955688e-01 -2.3035325109958649e-01</leafValues></_>
    <_>
      <internalNodes>
        0 -1 160378 4.8508975305594504e-04</internalNodes>
      <leafValues>
        -1.9516435265541077e-01 3.3746525645256042e-01</leafValues></_>
    <_>
      <internalNodes>
        0 -1 45673 1.7263449728488922e-02</internalNodes>
      <leafValues>
        -2.8597202897071838e-01 1.6871085762977600e-01</leafValues></_>
    <_>
      <internalNodes>
        0 -1 153202 6.6438554786145687e-03</internalNodes>
      <leafValues>
        -9.3486703932285309e-02 5.6148731708526611e-01</leafValues></_>
    <_>
      <internalNodes>
        0 -1 136826 -7.3413313366472721e-03</internalNodes>
      <leafValues>
        5.1043748855590820e-01 -8.4151856601238251e-02</leafValues></_>
    <_>
      <internalNodes>
        0 -1 137642 4.1643185541033745e-03</internalNodes>
      <leafValues>
        -1.8229222297668457e-01 3.2208335399627686e-01</leafValues></_>
    <_>
      <internalNodes>
        0 -1 49477 -1.3301898434292525e-04</internalNodes>
      <leafValues>
        -3.6980020999908447e-01 1.3545545935630798e-01</leafValues></_>
    <_>
      <internalNodes>
        0 -1 148222 2.9481766978278756e-04</internalNodes>
      <leafValues>
        -1.9952483475208282e-01 2.6305839419364929e-01</leafValues></_>
    <_>
      <internalNodes>
        0 -1 38140 3.1904838979244232e-03</internalNodes>
      <leafValues>
        7.3234811425209045e-02 -6.2231522798538208e-01</leafValues></_>
    <_>
      <internalNodes>
        0 -1 88813 1.3436087174341083e-03</internalNodes>
      <leafValues>
        -1.1275996267795563e-01 4.5936453342437744e-01</leafValues></_>
    <_>
      <internalNodes>
        0 -1 62983 2.5492107961326838e-03</internalNodes>
      <leafValues>
        -9.9688217043876648e-02 4.5032742619514465e-01</leafValues></_>
    <_>
      <internalNodes>
        0 -1 13081 4.5328708365559578e-03</internalNodes>
      <leafValues>
        7.5546309351921082e-02 -6.9691997766494751e-01</leafValues></_></weakClassifiers></stage17>
</opencv_storage>
