<?xml version="1.0"?>
<opencv_storage>
<stage6>
  <maxWeakCount>18</maxWeakCount>
  <stageThreshold>-1.1660871505737305e+00</stageThreshold>
  <weakClassifiers>
    <_>
      <internalNodes>
        0 -1 46784 -1.1052426695823669e-01</internalNodes>
      <leafValues>
        7.6470589637756348e-01 -2.4297043681144714e-01</leafValues></_>
    <_>
      <internalNodes>
        0 -1 25008 -1.0718408157117665e-04</internalNodes>
      <leafValues>
        -5.3956121206283569e-01 2.1846823394298553e-01</leafValues></_>
    <_>
      <internalNodes>
        0 -1 12753 4.9955695867538452e-03</internalNodes>
      <leafValues>
        -3.7598213553428650e-01 3.0757555365562439e-01</leafValues></_>
    <_>
      <internalNodes>
        0 -1 863 -2.6241526007652283e-01</internalNodes>
      <leafValues>
        -6.9475418329238892e-01 8.7462365627288818e-02</leafValues></_>
    <_>
      <internalNodes>
        0 -1 12551 2.2168221767060459e-04</internalNodes>
      <leafValues>
        1.7311607301235199e-01 -5.1681762933731079e-01</leafValues></_>
    <_>
      <internalNodes>
        0 -1 844 -3.0634430050849915e-01</internalNodes>
      <leafValues>
        -9.1144984960556030e-01 8.8441610336303711e-02</leafValues></_>
    <_>
      <internalNodes>
        0 -1 82767 -1.1087810248136520e-01</internalNodes>
      <leafValues>
        2.9695332050323486e-01 -2.4485528469085693e-01</leafValues></_>
    <_>
      <internalNodes>
        0 -1 92336 -1.7541669309139252e-02</internalNodes>
      <leafValues>
        5.3641825914382935e-01 -1.5891446173191071e-01</leafValues></_>
    <_>
      <internalNodes>
        0 -1 162318 -1.6295371460728347e-04</internalNodes>
      <leafValues>
        -4.7703346610069275e-01 1.6836766898632050e-01</leafValues></_>
    <_>
      <internalNodes>
        0 -1 48540 6.6179949790239334e-03</internalNodes>
      <leafValues>
        -2.5863316655158997e-01 2.7517938613891602e-01</leafValues></_>
    <_>
      <internalNodes>
        0 -1 16653 1.7122395336627960e-02</internalNodes>
      <leafValues>
        -2.1581919491291046e-01 3.2690215110778809e-01</leafValues></_>
    <_>
      <internalNodes>
        0 -1 85324 -1.2767689302563667e-02</internalNodes>
      <leafValues>
        6.3316154479980469e-01 -9.7207479178905487e-02</leafValues></_>
    <_>
      <internalNodes>
        0 -1 162323 -9.2563888756558299e-05</internalNodes>
      <leafValues>
        -4.3997362256050110e-01 1.6153244674205780e-01</leafValues></_>
    <_>
      <internalNodes>
        0 -1 112866 -1.5326112508773804e-02</internalNodes>
      <leafValues>
        4.8977085947990417e-01 -1.4488336443901062e-01</leafValues></_>
    <_>
      <internalNodes>
        0 -1 70364 -4.9448423087596893e-02</internalNodes>
      <leafValues>
        -8.0214524269104004e-01 9.2421956360340118e-02</leafValues></_>
    <_>
      <internalNodes>
        0 -1 3231 -4.4142575934529305e-03</internalNodes>
      <leafValues>
        3.6934414505958557e-01 -1.8890431523323059e-01</leafValues></_>
    <_>
      <internalNodes>
        0 -1 17279 6.9232396781444550e-03</internalNodes>
      <leafValues>
        -1.8980428576469421e-01 3.9694344997406006e-01</leafValues></_>
    <_>
      <internalNodes>
        0 -1 162312 -1.6543900710530579e-04</internalNodes>
      <leafValues>
        -4.8998221755027771e-01 1.5906652808189392e-01</leafValues></_></weakClassifiers></stage6>
</opencv_storage>
