<?xml version="1.0"?>
<opencv_storage>
<stage0>
  <maxWeakCount>8</maxWeakCount>
  <stageThreshold>-1.5032744407653809e+00</stageThreshold>
  <weakClassifiers>
    <_>
      <internalNodes>
        0 -1 68311 -5.7120546698570251e-02</internalNodes>
      <leafValues>
        8.3206105232238770e-01 -6.4659428596496582e-01</leafValues></_>
    <_>
      <internalNodes>
        0 -1 533 -1.2989965081214905e-01</internalNodes>
      <leafValues>
        -6.8400895595550537e-01 3.2620063424110413e-01</leafValues></_>
    <_>
      <internalNodes>
        0 -1 100981 5.5060699582099915e-02</internalNodes>
      <leafValues>
        -3.6731153726577759e-01 5.0442641973495483e-01</leafValues></_>
    <_>
      <internalNodes>
        0 -1 13003 -4.3321377597749233e-04</internalNodes>
      <leafValues>
        -8.3211398124694824e-01 1.8506447970867157e-01</leafValues></_>
    <_>
      <internalNodes>
        0 -1 13003 5.1242375047877431e-04</internalNodes>
      <leafValues>
        1.8730504810810089e-01 -6.7158657312393188e-01</leafValues></_>
    <_>
      <internalNodes>
        0 -1 54367 2.6252716779708862e-02</internalNodes>
      <leafValues>
        -2.0781518518924713e-01 6.4156025648117065e-01</leafValues></_>
    <_>
      <internalNodes>
        0 -1 162331 -1.1014756455551833e-04</internalNodes>
      <leafValues>
        -5.3013336658477783e-01 2.2558970749378204e-01</leafValues></_>
    <_>
      <internalNodes>
        0 -1 120144 8.3237737417221069e-03</internalNodes>
      <leafValues>
        -2.0835010707378387e-01 6.1487632989883423e-01</leafValues></_></weakClassifiers></stage0>
</opencv_storage>
