<?xml version="1.0"?>
<opencv_storage>
<stage22>
  <maxWeakCount>15</maxWeakCount>
  <stageThreshold>-1.0920164585113525e+00</stageThreshold>
  <weakClassifiers>
    <_>
      <internalNodes>
        0 -1 117525 1.5322605147957802e-02</internalNodes>
      <leafValues>
        -2.8393134474754333e-01 6.3157892227172852e-01</leafValues></_>
    <_>
      <internalNodes>
        0 -1 133303 2.9939166270196438e-03</internalNodes>
      <leafValues>
        -2.8592693805694580e-01 3.7944391369819641e-01</leafValues></_>
    <_>
      <internalNodes>
        0 -1 162309 -2.2088430705480278e-04</internalNodes>
      <leafValues>
        -4.5974841713905334e-01 2.2515988349914551e-01</leafValues></_>
    <_>
      <internalNodes>
        0 -1 87151 1.4682525943499058e-04</internalNodes>
      <leafValues>
        -2.2789821028709412e-01 4.8232677578926086e-01</leafValues></_>
    <_>
      <internalNodes>
        0 -1 49302 9.2561950441449881e-04</internalNodes>
      <leafValues>
        -1.2397814542055130e-01 6.9033348560333252e-01</leafValues></_>
    <_>
      <internalNodes>
        0 -1 9943 -6.9235712289810181e-02</internalNodes>
      <leafValues>
        8.2192367315292358e-01 -1.5698325634002686e-01</leafValues></_>
    <_>
      <internalNodes>
        0 -1 70071 -2.8561658691614866e-03</internalNodes>
      <leafValues>
        8.3885794878005981e-01 -1.2900017201900482e-01</leafValues></_>
    <_>
      <internalNodes>
        0 -1 123977 1.1334247887134552e-02</internalNodes>
      <leafValues>
        -1.9740672409534454e-01 5.7951015233993530e-01</leafValues></_>
    <_>
      <internalNodes>
        0 -1 136368 3.1989556737244129e-03</internalNodes>
      <leafValues>
        -1.5376412868499756e-01 7.2143644094467163e-01</leafValues></_>
    <_>
      <internalNodes>
        0 -1 69290 7.9737370833754539e-04</internalNodes>
      <leafValues>
        -1.7555832862854004e-01 6.0348975658416748e-01</leafValues></_>
    <_>
      <internalNodes>
        0 -1 159617 -7.2468552389182150e-05</internalNodes>
      <leafValues>
        -3.8770467042922974e-01 3.4323465824127197e-01</leafValues></_>
    <_>
      <internalNodes>
        0 -1 11632 -1.1544413864612579e-03</internalNodes>
      <leafValues>
        -5.6286221742630005e-01 2.3443290591239929e-01</leafValues></_>
    <_>
      <internalNodes>
        0 -1 151329 -3.8189807673916221e-04</internalNodes>
      <leafValues>
        4.3736007809638977e-01 -2.7475038170814514e-01</leafValues></_>
    <_>
      <internalNodes>
        0 -1 12555 3.0427848105318844e-04</internalNodes>
      <leafValues>
        -2.0060056447982788e-01 5.2815288305282593e-01</leafValues></_>
    <_>
      <internalNodes>
        0 -1 146411 2.3044364061206579e-03</internalNodes>
      <leafValues>
        -1.4032211899757385e-01 7.1092319488525391e-01</leafValues></_></weakClassifiers></stage22>
</opencv_storage>
