<?xml version="1.0"?>
<opencv_storage>
<stage12>
  <maxWeakCount>27</maxWeakCount>
  <stageThreshold>-1.0447865724563599e+00</stageThreshold>
  <weakClassifiers>
    <_>
      <internalNodes>
        0 -1 161506 1.0728689376264811e-03</internalNodes>
      <leafValues>
        -2.5833332538604736e-01 2.1066667139530182e-01</leafValues></_>
    <_>
      <internalNodes>
        0 -1 116622 -6.3861250877380371e-02</internalNodes>
      <leafValues>
        5.9278267621994019e-01 -1.0225151479244232e-01</leafValues></_>
    <_>
      <internalNodes>
        0 -1 162289 -1.3787404168397188e-04</internalNodes>
      <leafValues>
        -4.1019886732101440e-01 1.2201859056949615e-01</leafValues></_>
    <_>
      <internalNodes>
        0 -1 150138 -9.6861403435468674e-03</internalNodes>
      <leafValues>
        5.2761185169219971e-01 -9.6458405256271362e-02</leafValues></_>
    <_>
      <internalNodes>
        0 -1 146142 1.2245081365108490e-02</internalNodes>
      <leafValues>
        -1.7139716446399689e-01 2.7421218156814575e-01</leafValues></_>
    <_>
      <internalNodes>
        0 -1 65611 -5.4665827192366123e-03</internalNodes>
      <leafValues>
        4.4334775209426880e-01 -1.5042416751384735e-01</leafValues></_>
    <_>
      <internalNodes>
        0 -1 156227 5.9105530381202698e-03</internalNodes>
      <leafValues>
        -1.5559998154640198e-01 3.3378726243972778e-01</leafValues></_>
    <_>
      <internalNodes>
        0 -1 147600 2.3883311077952385e-03</internalNodes>
      <leafValues>
        -1.8685108423233032e-01 2.6478654146194458e-01</leafValues></_>
    <_>
      <internalNodes>
        0 -1 134265 2.5155255571007729e-03</internalNodes>
      <leafValues>
        -2.1425993740558624e-01 2.2484718263149261e-01</leafValues></_>
    <_>
      <internalNodes>
        0 -1 110471 -9.8332859575748444e-02</internalNodes>
      <leafValues>
        4.8725947737693787e-01 -1.3237035274505615e-01</leafValues></_>
    <_>
      <internalNodes>
        0 -1 2361 -1.2050008401274681e-02</internalNodes>
      <leafValues>
        4.3560430407524109e-01 -1.1574434489011765e-01</leafValues></_>
    <_>
      <internalNodes>
        0 -1 149593 -1.0950250551104546e-02</internalNodes>
      <leafValues>
        3.0334985256195068e-01 -1.8554052710533142e-01</leafValues></_>
    <_>
      <internalNodes>
        0 -1 48975 -2.3626736947335303e-04</internalNodes>
      <leafValues>
        -5.0832992792129517e-01 1.0740763694047928e-01</leafValues></_>
    <_>
      <internalNodes>
        0 -1 106002 -1.1853404343128204e-02</internalNodes>
      <leafValues>
        2.0686523616313934e-01 -2.4869306385517120e-01</leafValues></_>
    <_>
      <internalNodes>
        0 -1 135435 -4.7015727614052594e-04</internalNodes>
      <leafValues>
        3.1449824571609497e-01 -1.5702894330024719e-01</leafValues></_>
    <_>
      <internalNodes>
        0 -1 113579 4.1993958875536919e-03</internalNodes>
      <leafValues>
        -1.2531533837318420e-01 4.3880295753479004e-01</leafValues></_>
    <_>
      <internalNodes>
        0 -1 162297 -2.7529825456440449e-04</internalNodes>
      <leafValues>
        -4.9129411578178406e-01 1.2416993826627731e-01</leafValues></_>
    <_>
      <internalNodes>
        0 -1 106603 1.9128660205751657e-03</internalNodes>
      <leafValues>
        -1.7663535475730896e-01 2.7508345246315002e-01</leafValues></_>
    <_>
      <internalNodes>
        0 -1 43775 4.9281627871096134e-03</internalNodes>
      <leafValues>
        -1.7866992950439453e-01 2.8573432564735413e-01</leafValues></_>
    <_>
      <internalNodes>
        0 -1 63648 -1.3653421774506569e-02</internalNodes>
      <leafValues>
        4.4187548756599426e-01 -1.1414980888366699e-01</leafValues></_>
    <_>
      <internalNodes>
        0 -1 25719 -1.7994339577853680e-04</internalNodes>
      <leafValues>
        -5.3767395019531250e-01 1.0786317288875580e-01</leafValues></_>
    <_>
      <internalNodes>
        0 -1 52961 3.5823904909193516e-03</internalNodes>
      <leafValues>
        -2.0942935347557068e-01 2.7829787135124207e-01</leafValues></_>
    <_>
      <internalNodes>
        0 -1 138940 7.9886130988597870e-03</internalNodes>
      <leafValues>
        -1.8118587136268616e-01 2.9161262512207031e-01</leafValues></_>
    <_>
      <internalNodes>
        0 -1 138691 -7.5735291466116905e-03</internalNodes>
      <leafValues>
        3.6231124401092529e-01 -1.4367489516735077e-01</leafValues></_>
    <_>
      <internalNodes>
        0 -1 44619 -4.0931086987257004e-02</internalNodes>
      <leafValues>
        3.8165566325187683e-01 -1.3016186654567719e-01</leafValues></_>
    <_>
      <internalNodes>
        0 -1 157555 -1.3011530973017216e-04</internalNodes>
      <leafValues>
        -3.4672459959983826e-01 1.3895218074321747e-01</leafValues></_>
    <_>
      <internalNodes>
        0 -1 48535 7.3685543611645699e-04</internalNodes>
      <leafValues>
        -1.7784227430820465e-01 2.9985707998275757e-01</leafValues></_></weakClassifiers></stage12>
</opencv_storage>
